svm_type c_svc
kernel_type rbf
gamma 0.80000000000000004
nr_class 2
total_sv 8
rho 33.396211540701984
label 1 0
nr_sv 4 4
SV
448.96194454168204 1:0.774 2:0.376 
1000 1:0.403 2:0.237 
1000 1:0.481 2:0.149 
695.07609567075394 1:0.437 2:0.211 
-815.21046508122845 1:0.343 2:0.099 
-382.93709382790792 1:0.639 2:0.161 
-1000 1:0.657 2:0.198 
-945.89048130329979 1:0.36 2:0.37 
