svm_type c_svc
kernel_type linear
nr_class 2
total_sv 12
rho 1.8816534542927019
label 1 0
nr_sv 6 6
SV
1000 1:0.634 2:0.264 
143.91482586027828 1:0.608 2:0.318 
1000 1:0.556 2:0.215 
1000 1:0.403 2:0.237 
1000 1:0.481 2:0.149 
1000 1:0.437 2:0.211 
-1000 1:0.243 2:0.267 
-326.79801822873344 1:0.343 2:0.099 
-1000 1:0.639 2:0.161 
-1000 1:0.657 2:0.198 
-1000 1:0.36 2:0.37 
-817.11680763154379 1:0.719 2:0.103 
