svm_type c_svc
kernel_type sigmoid
gamma 10
coef0 0
nr_class 2
total_sv 8
rho -1.8163114786148071
label 1 0
nr_sv 4 4
SV
100 1:0.556 2:0.215 
100 1:0.403 2:0.237 
100 1:0.481 2:0.149 
100 1:0.437 2:0.211 
-100 1:0.666 2:0.091 
-100 1:0.639 2:0.161 
-100 1:0.657 2:0.198 
-100 1:0.719 2:0.103 
